digraph Tree {
node [shape=box, style="filled, rounded", color="black", fontname="helvetica"] ;
edge [fontname="helvetica"] ;
0 [label="Height <= 12.637\ngini = 0.792\nsamples = 143\nvalue = [31, 10, 49, 15, 19, 13, 6]\nclass = Whitefish", fillcolor="#dffbe2"] ;
1 [label="Height <= 3.23\ngini = 0.757\nsamples = 115\nvalue = [4, 10, 48, 15, 19, 13, 6]\nclass = Whitefish", fillcolor="#c3f7c9"] ;
0 -> 1 [labeldistance=2.5, labelangle=45, headlabel="True"] ;
2 [label="Length1 <= 8.4\ngini = 0.133\nsamples = 14\nvalue = [0, 0, 1, 0, 0, 13, 0]\nclass = Pike", fillcolor="#b748e7"] ;
1 -> 2 ;
3 [label="gini = 0.0\nsamples = 1\nvalue = [0, 0, 1, 0, 0, 0, 0]\nclass = Whitefish", fillcolor="#39e54d"] ;
2 -> 3 ;
4 [label="gini = 0.0\nsamples = 13\nvalue = [0, 0, 0, 0, 0, 13, 0]\nclass = Pike", fillcolor="#b139e5"] ;
2 -> 4 ;
5 [label="Length2 <= 44.25\ngini = 0.711\nsamples = 101\nvalue = [4, 10, 47, 15, 19, 0, 6]\nclass = Whitefish", fillcolor="#bbf6c2"] ;
1 -> 5 ;
6 [label="Length1 <= 24.05\ngini = 0.68\nsamples = 93\nvalue = [4, 10, 47, 7, 19, 0, 6]\nclass = Whitefish", fillcolor="#b4f5bc"] ;
5 -> 6 ;
7 [label="Height <= 7.401\ngini = 0.678\nsamples = 56\nvalue = [3, 10, 24, 0, 18, 0, 1]\nclass = Whitefish", fillcolor="#e0fbe3"] ;
6 -> 7 ;
8 [label="Height <= 6.112\ngini = 0.526\nsamples = 42\nvalue = [0, 2, 24, 0, 16, 0, 0]\nclass = Whitefish", fillcolor="#c2f7c8"] ;
7 -> 8 ;
9 [label="Length3 <= 24.6\ngini = 0.363\nsamples = 21\nvalue = [0, 0, 16, 0, 5, 0, 0]\nclass = Whitefish", fillcolor="#77ed85"] ;
8 -> 9 ;
10 [label="Width <= 2.923\ngini = 0.32\nsamples = 20\nvalue = [0, 0, 16, 0, 4, 0, 0]\nclass = Whitefish", fillcolor="#6aec79"] ;
9 -> 10 ;
11 [label="Length2 <= 17.2\ngini = 0.5\nsamples = 6\nvalue = [0, 0, 3, 0, 3, 0, 0]\nclass = Whitefish", fillcolor="#ffffff"] ;
10 -> 11 ;
12 [label="Length3 <= 16.1\ngini = 0.375\nsamples = 4\nvalue = [0, 0, 3, 0, 1, 0, 0]\nclass = Whitefish", fillcolor="#7bee88"] ;
11 -> 12 ;
13 [label="gini = 0.0\nsamples = 2\nvalue = [0, 0, 2, 0, 0, 0, 0]\nclass = Whitefish", fillcolor="#39e54d"] ;
12 -> 13 ;
14 [label="Weight <= 45.75\ngini = 0.5\nsamples = 2\nvalue = [0, 0, 1, 0, 1, 0, 0]\nclass = Whitefish", fillcolor="#ffffff"] ;
12 -> 14 ;
15 [label="gini = 0.0\nsamples = 1\nvalue = [0, 0, 0, 0, 1, 0, 0]\nclass = Perch", fillcolor="#3956e5"] ;
14 -> 15 ;
16 [label="gini = 0.0\nsamples = 1\nvalue = [0, 0, 1, 0, 0, 0, 0]\nclass = Whitefish", fillcolor="#39e54d"] ;
14 -> 16 ;
17 [label="gini = 0.0\nsamples = 2\nvalue = [0, 0, 0, 0, 2, 0, 0]\nclass = Perch", fillcolor="#3956e5"] ;
11 -> 17 ;
18 [label="Weight <= 93.5\ngini = 0.133\nsamples = 14\nvalue = [0, 0, 13, 0, 1, 0, 0]\nclass = Whitefish", fillcolor="#48e75b"] ;
10 -> 18 ;
19 [label="Width <= 3.149\ngini = 0.32\nsamples = 5\nvalue = [0, 0, 4, 0, 1, 0, 0]\nclass = Whitefish", fillcolor="#6aec79"] ;
18 -> 19 ;
20 [label="gini = 0.0\nsamples = 4\nvalue = [0, 0, 4, 0, 0, 0, 0]\nclass = Whitefish", fillcolor="#39e54d"] ;
19 -> 20 ;
21 [label="gini = 0.0\nsamples = 1\nvalue = [0, 0, 0, 0, 1, 0, 0]\nclass = Perch", fillcolor="#3956e5"] ;
19 -> 21 ;
22 [label="gini = 0.0\nsamples = 9\nvalue = [0, 0, 9, 0, 0, 0, 0]\nclass = Whitefish", fillcolor="#39e54d"] ;
18 -> 22 ;
23 [label="gini = 0.0\nsamples = 1\nvalue = [0, 0, 0, 0, 1, 0, 0]\nclass = Perch", fillcolor="#3956e5"] ;
9 -> 23 ;
24 [label="Length2 <= 23.75\ngini = 0.571\nsamples = 21\nvalue = [0, 2, 8, 0, 11, 0, 0]\nclass = Perch", fillcolor="#d1d8f9"] ;
8 -> 24 ;
25 [label="Length2 <= 17.75\ngini = 0.498\nsamples = 15\nvalue = [0, 2, 3, 0, 10, 0, 0]\nclass = Perch", fillcolor="#8c9cf0"] ;
24 -> 25 ;
26 [label="gini = 0.0\nsamples = 2\nvalue = [0, 2, 0, 0, 0, 0, 0]\nclass = Roach", fillcolor="#b7e539"] ;
25 -> 26 ;
27 [label="Weight <= 125.0\ngini = 0.355\nsamples = 13\nvalue = [0, 0, 3, 0, 10, 0, 0]\nclass = Perch", fillcolor="#7489ed"] ;
25 -> 27 ;
28 [label="gini = 0.0\nsamples = 4\nvalue = [0, 0, 0, 0, 4, 0, 0]\nclass = Perch", fillcolor="#3956e5"] ;
27 -> 28 ;
29 [label="Height <= 6.392\ngini = 0.444\nsamples = 9\nvalue = [0, 0, 3, 0, 6, 0, 0]\nclass = Perch", fillcolor="#9caaf2"] ;
27 -> 29 ;
30 [label="gini = 0.0\nsamples = 2\nvalue = [0, 0, 2, 0, 0, 0, 0]\nclass = Whitefish", fillcolor="#39e54d"] ;
29 -> 30 ;
31 [label="Length3 <= 24.15\ngini = 0.245\nsamples = 7\nvalue = [0, 0, 1, 0, 6, 0, 0]\nclass = Perch", fillcolor="#5a72e9"] ;
29 -> 31 ;
32 [label="gini = 0.0\nsamples = 1\nvalue = [0, 0, 1, 0, 0, 0, 0]\nclass = Whitefish", fillcolor="#39e54d"] ;
31 -> 32 ;
33 [label="gini = 0.0\nsamples = 6\nvalue = [0, 0, 0, 0, 6, 0, 0]\nclass = Perch", fillcolor="#3956e5"] ;
31 -> 33 ;
34 [label="Length1 <= 23.55\ngini = 0.278\nsamples = 6\nvalue = [0, 0, 5, 0, 1, 0, 0]\nclass = Whitefish", fillcolor="#61ea71"] ;
24 -> 34 ;
35 [label="gini = 0.0\nsamples = 5\nvalue = [0, 0, 5, 0, 0, 0, 0]\nclass = Whitefish", fillcolor="#39e54d"] ;
34 -> 35 ;
36 [label="gini = 0.0\nsamples = 1\nvalue = [0, 0, 0, 0, 1, 0, 0]\nclass = Perch", fillcolor="#3956e5"] ;
34 -> 36 ;
37 [label="Height <= 11.444\ngini = 0.602\nsamples = 14\nvalue = [3, 8, 0, 0, 2, 0, 1]\nclass = Roach", fillcolor="#def3a5"] ;
7 -> 37 ;
38 [label="Width <= 4.241\ngini = 0.43\nsamples = 11\nvalue = [0, 8, 0, 0, 2, 0, 1]\nclass = Roach", fillcolor="#cfee7b"] ;
37 -> 38 ;
39 [label="Height <= 7.963\ngini = 0.198\nsamples = 9\nvalue = [0, 8, 0, 0, 1, 0, 0]\nclass = Roach", fillcolor="#c0e852"] ;
38 -> 39 ;
40 [label="Length2 <= 20.85\ngini = 0.5\nsamples = 2\nvalue = [0, 1, 0, 0, 1, 0, 0]\nclass = Roach", fillcolor="#ffffff"] ;
39 -> 40 ;
41 [label="gini = 0.0\nsamples = 1\nvalue = [0, 1, 0, 0, 0, 0, 0]\nclass = Roach", fillcolor="#b7e539"] ;
40 -> 41 ;
42 [label="gini = 0.0\nsamples = 1\nvalue = [0, 0, 0, 0, 1, 0, 0]\nclass = Perch", fillcolor="#3956e5"] ;
40 -> 42 ;
43 [label="gini = 0.0\nsamples = 7\nvalue = [0, 7, 0, 0, 0, 0, 0]\nclass = Roach", fillcolor="#b7e539"] ;
39 -> 43 ;
44 [label="Length3 <= 28.95\ngini = 0.5\nsamples = 2\nvalue = [0, 0, 0, 0, 1, 0, 1]\nclass = Perch", fillcolor="#ffffff"] ;
38 -> 44 ;
45 [label="gini = 0.0\nsamples = 1\nvalue = [0, 0, 0, 0, 0, 0, 1]\nclass = Smelt", fillcolor="#e53986"] ;
44 -> 45 ;
46 [label="gini = 0.0\nsamples = 1\nvalue = [0, 0, 0, 0, 1, 0, 0]\nclass = Perch", fillcolor="#3956e5"] ;
44 -> 46 ;
47 [label="gini = 0.0\nsamples = 3\nvalue = [3, 0, 0, 0, 0, 0, 0]\nclass = Bream", fillcolor="#e58139"] ;
37 -> 47 ;
48 [label="Height <= 6.938\ngini = 0.558\nsamples = 37\nvalue = [1, 0, 23, 7, 1, 0, 5]\nclass = Whitefish", fillcolor="#95f1a0"] ;
6 -> 48 ;
49 [label="gini = 0.0\nsamples = 5\nvalue = [0, 0, 0, 5, 0, 0, 0]\nclass = Parkki", fillcolor="#39e5e2"] ;
48 -> 49 ;
50 [label="Width <= 6.602\ngini = 0.453\nsamples = 32\nvalue = [1, 0, 23, 2, 1, 0, 5]\nclass = Whitefish", fillcolor="#7bee88"] ;
48 -> 50 ;
51 [label="Width <= 6.446\ngini = 0.62\nsamples = 20\nvalue = [1, 0, 11, 2, 1, 0, 5]\nclass = Whitefish", fillcolor="#b0f5b8"] ;
50 -> 51 ;
52 [label="Length1 <= 35.05\ngini = 0.547\nsamples = 17\nvalue = [1, 0, 11, 2, 1, 0, 2]\nclass = Whitefish", fillcolor="#88ef94"] ;
51 -> 52 ;
53 [label="Height <= 7.983\ngini = 0.459\nsamples = 14\nvalue = [1, 0, 10, 0, 1, 0, 2]\nclass = Whitefish", fillcolor="#7bee88"] ;
52 -> 53 ;
54 [label="gini = 0.0\nsamples = 7\nvalue = [0, 0, 7, 0, 0, 0, 0]\nclass = Whitefish", fillcolor="#39e54d"] ;
53 -> 54 ;
55 [label="Width <= 4.908\ngini = 0.694\nsamples = 7\nvalue = [1, 0, 3, 0, 1, 0, 2]\nclass = Whitefish", fillcolor="#d7fadb"] ;
53 -> 55 ;
56 [label="gini = 0.0\nsamples = 2\nvalue = [0, 0, 0, 0, 0, 0, 2]\nclass = Smelt", fillcolor="#e53986"] ;
55 -> 56 ;
57 [label="Width <= 5.136\ngini = 0.56\nsamples = 5\nvalue = [1, 0, 3, 0, 1, 0, 0]\nclass = Whitefish", fillcolor="#9cf2a6"] ;
55 -> 57 ;
58 [label="gini = 0.0\nsamples = 1\nvalue = [1, 0, 0, 0, 0, 0, 0]\nclass = Bream", fillcolor="#e58139"] ;
57 -> 58 ;
59 [label="Weight <= 452.0\ngini = 0.375\nsamples = 4\nvalue = [0, 0, 3, 0, 1, 0, 0]\nclass = Whitefish", fillcolor="#7bee88"] ;
57 -> 59 ;
60 [label="Weight <= 345.0\ngini = 0.5\nsamples = 2\nvalue = [0, 0, 1, 0, 1, 0, 0]\nclass = Whitefish", fillcolor="#ffffff"] ;
59 -> 60 ;
61 [label="gini = 0.0\nsamples = 1\nvalue = [0, 0, 1, 0, 0, 0, 0]\nclass = Whitefish", fillcolor="#39e54d"] ;
60 -> 61 ;
62 [label="gini = 0.0\nsamples = 1\nvalue = [0, 0, 0, 0, 1, 0, 0]\nclass = Perch", fillcolor="#3956e5"] ;
60 -> 62 ;
63 [label="gini = 0.0\nsamples = 2\nvalue = [0, 0, 2, 0, 0, 0, 0]\nclass = Whitefish", fillcolor="#39e54d"] ;
59 -> 63 ;
64 [label="Height <= 9.213\ngini = 0.444\nsamples = 3\nvalue = [0, 0, 1, 2, 0, 0, 0]\nclass = Parkki", fillcolor="#9cf2f0"] ;
52 -> 64 ;
65 [label="gini = 0.0\nsamples = 2\nvalue = [0, 0, 0, 2, 0, 0, 0]\nclass = Parkki", fillcolor="#39e5e2"] ;
64 -> 65 ;
66 [label="gini = 0.0\nsamples = 1\nvalue = [0, 0, 1, 0, 0, 0, 0]\nclass = Whitefish", fillcolor="#39e54d"] ;
64 -> 66 ;
67 [label="gini = 0.0\nsamples = 3\nvalue = [0, 0, 0, 0, 0, 0, 3]\nclass = Smelt", fillcolor="#e53986"] ;
51 -> 67 ;
68 [label="gini = 0.0\nsamples = 12\nvalue = [0, 0, 12, 0, 0, 0, 0]\nclass = Whitefish", fillcolor="#39e54d"] ;
50 -> 68 ;
69 [label="gini = 0.0\nsamples = 8\nvalue = [0, 0, 0, 8, 0, 0, 0]\nclass = Parkki", fillcolor="#39e5e2"] ;
5 -> 69 ;
70 [label="Weight <= 1050.0\ngini = 0.069\nsamples = 28\nvalue = [27, 0, 1, 0, 0, 0, 0]\nclass = Bream", fillcolor="#e68640"] ;
0 -> 70 [labeldistance=2.5, labelangle=-45, headlabel="False"] ;
71 [label="gini = 0.0\nsamples = 27\nvalue = [27, 0, 0, 0, 0, 0, 0]\nclass = Bream", fillcolor="#e58139"] ;
70 -> 71 ;
72 [label="gini = 0.0\nsamples = 1\nvalue = [0, 0, 1, 0, 0, 0, 0]\nclass = Whitefish", fillcolor="#39e54d"] ;
70 -> 72 ;
}